{
  "layers": [
    {
      "activation": 1,
      "biases": [
        0.6369241294274568,
        -8.399319922522228,
        1.388493087138286
      ],
      "cols": 3,
      "rows": 2,
      "weights": [
        [
          9.174373571702722,
          7.390765763161951,
          -5.845107359493896
        ],
        [
          -6.249762498685651,
          3.94655076283724,
          -1.2435130526952916
        ]
      ]
    },
    {
      "activation": 1,
      "biases": [
        -1.5469128210560024,
        0.8089401896587882,
        -1.436808032700345,
        -1.8503082875329941,
        1.3882300903591098,
        0.4134161467449281,
        -1.6329041685882402,
        -3.548027269203515,
        -2.7619427264847887,
        -0.3647543188701056
      ],
      "cols": 10,
      "rows": 3,
      "weights": [
        [
          0.3059366200536622,
          -2.344243049144269,
          2.9461440424567717,
          1.5605290133306844,
          0.07172455311049554,
          1.2084060500146179,
          3.179576577002104,
          3.2452222047425057,
          0.7015302185904705,
          -2.4943616513168347
        ],
        [
          -1.49366649078258,
          8.163868181206498,
          0.9698278497216174,
          4.39051433220362,
          -0.492644060911374,
          -1.1241460352745176,
          -0.004044101624198227,
          2.952430161272864,
          5.0632472814974125,
          5.237377004909163
        ],
        [
          -0.0283519664142586,
          2.4039239514373105,
          -3.443059537762067,
          -1.9809671821238513,
          -0.25197759295627375,
          -2.699611700180051,
          -1.3146154056407588,
          1.4557658596553644,
          2.660195995350658,
          -0.3585428690437251
        ]
      ]
    }
  ]
}
