{
  "layers": [
    {
      "activation": 1,
      "biases": [
        3.8299082839782868,
        -3.005973885450087,
        2.914457368123194
      ],
      "cols": 3,
      "rows": 2,
      "weights": [
        [
          5.463304656917176,
          -11.865133210970125,
          -5.838669975452911
        ],
        [
          -13.869511649316582,
          4.161562252843319,
          5.755147795437114
        ]
      ]
    },
    {
      "activation": 1,
      "biases": [
        -3.521579808699871,
        -0.25133519445336516,
        2.048462796212522,
        5.686111078994851,
        0.3456532554031567,
        4.6757777612255715,
        -0.010083650800237095,
        1.1092680527544276,
        -1.7704587062993304,
        -0.016000309675377
      ],
      "cols": 10,
      "rows": 3,
      "weights": [
        [
          -1.2310297483868222,
          -6.4523160216751005,
          -1.8213255826206893,
          -4.76364556656591,
          0.8184675679309192,
          -5.565643083591864,
          -7.6829065346504635,
          2.9826459036937126e-05,
          -0.007841861073147707,
          -5.82521968941627e-08
        ],
        [
          -1.8740478489468921,
          2.164041773118,
          6.250058933838567,
          2.6461840021655227,
          2.256213117076921,
          1.5662458154701413,
          -1.0726647705475367,
          0.00012790836193050622,
          -0.020603298340794614,
          -3.485704954709274e-07
        ],
        [
          -1.6503161270423934,
          0.8660325178678461,
          -1.9759500502737217,
          -5.804496581805715,
          0.09370008153373358,
          -3.7027035696039023,
          2.339181220719554,
          1.9305950287282213e-05,
          -0.00832061940320808,
          -1.2839569899231918e-08
        ]
      ]
    }
  ]
}
