{
  "layers": [
    {
      "activation": 1,
      "biases": [
        -4.1487870562293905,
        -4.890678091829003,
        0.5729603648232449
      ],
      "cols": 3,
      "rows": 2,
      "weights": [
        [
          7.92283259123229,
          2.2480920412479115,
          9.040765029958871
        ],
        [
          8.748707280479938,
          7.947864844168754,
          -2.388819884141669
        ]
      ]
    },
    {
      "activation": 1,
      "biases": [
        -0.6811710098174147,
        4.182851681263293,
        7.974831425483719,
        -0.2943367190130833,
        -3.7085943868327695,
        4.634766348484132,
        -1.1884869523980042,
        5.3122414577660555,
        1.8840916381975166,
        -0.4395578881791848
      ],
      "cols": 10,
      "rows": 3,
      "weights": [
        [
          -1.5956156189618963e-14,
          0.06887644697764231,
          0.20889166115437185,
          12.558940228969547,
          6.29976928266859,
          -1.9684770872044501,
          -0.1786885124751768,
          0.956063594252901,
          -0.47897319597399635,
          0.314540239313637
        ],
        [
          -7.256325565508647e-15,
          -1.1504056852124092,
          -3.62312826826383,
          -9.381035834376068,
          -4.032177655176895,
          -2.4011934013590146,
          0.3447537138026226,
          -2.9095419727290794,
          1.0647015048510342,
          -0.6368322839058441
        ],
        [
          -2.3533794067475196e-14,
          -1.7426635820154133,
          -5.4071888190767625,
          -3.5094444111119705,
          2.7693945689863146,
          0.6775583063574662,
          0.26876780374711473,
          -1.7229969690335933,
          0.9104238600539083,
          -0.5172853448338524
        ]
      ]
    }
  ]
}
