{
  "layers": [
    {
      "activation": 1,
      "biases": [
        -4.640559482305705,
        2.9206114777608843,
        9.91751346242435
      ],
      "cols": 3,
      "rows": 2,
      "weights": [
        [
          6.0873382375510365,
          -3.0071004003791,
          -1.5419975225200753
        ],
        [
          1.3379615876378803,
          -6.768851584127889,
          -11.899849312087136
        ]
      ]
    },
    {
      "activation": 1,
      "biases": [
        4.113662803536315,
        4.528564227986168,
        2.56232171250111,
        2.0314254809988235,
        4.493272048546792,
        3.1287617128701237,
        0.9226111687337095,
        1.4312216359148042,
        3.65017663114712,
        1.849009420130226
      ],
      "cols": 10,
      "rows": 3,
      "weights": [
        [
          2.0302283873091382,
          4.228537597941806,
          -0.7908990531651475,
          0.6932889382201587,
          5.038772828087943,
          9.989889199217457,
          1.5626921184278937,
          1.5681094473415997,
          -0.09061091435485825,
          -0.8923846962702351
        ],
        [
          1.7046006078060367,
          -3.4543422738514944,
          4.778266907998812,
          5.552768517768971,
          -3.999406268203808,
          -0.7165027374863445,
          -1.6527692936249296,
          -2.2143066278191985,
          1.0141535490572444,
          2.9514698857097352
        ],
        [
          0.886318642771048,
          -1.0781797803623068,
          -7.309941010472008,
          -7.873823667117942,
          -1.1829834245837447,
          -8.855375500521083,
          -0.6289161038752852,
          -0.40293508581182197,
          -5.627224429046258,
          -5.490241575823841
        ]
      ]
    }
  ]
}
