{
  "layers": [
    {
      "activation": 1,
      "biases": [
        -1.4642293539043216,
        5.091403183668971,
        -1.3325133500318103
      ],
      "cols": 3,
      "rows": 2,
      "weights": [
        [
          3.797749007154811,
          -3.4826394798858713,
          -2.958003931659902
        ],
        [
          -2.756968346803699,
          -5.454609946077386,
          3.0729703317393535
        ]
      ]
    },
    {
      "activation": 1,
      "biases": [
        -2.1459638036507616,
        0.40265291653786855,
        -1.3787330489728022,
        -0.6858270876837486,
        -0.5782438138632483,
        -0.6565322919945115,
        -1.299257274295431,
        0.0514886341245325,
        -0.0012395984361520604,
        0.598072147254992
      ],
      "cols": 10,
      "rows": 3,
      "weights": [
        [
          -0.9002973443973896,
          3.569852355268103,
          -0.48216018595748766,
          -1.601892720621587,
          -1.0670519645551668,
          -0.5664916104341811,
          2.8444611310795502,
          -1.6177591205217434,
          2.8860764174834435,
          -1.4362263862467126
        ],
        [
          8.256360063927056,
          3.210479274038876,
          4.873995972535108,
          3.644567537188146,
          3.571334198392804,
          1.2867183383535423,
          2.5055852548484867,
          6.356651647465008,
          3.550863178572133,
          5.706629629645796
        ],
        [
          -0.7239379588507259,
          -2.4213945970543094,
          -1.007319908921355,
          -1.0992152558256392,
          -1.0665406146105467,
          0.15158295489539272,
          -1.6047076078802895,
          1.5649346222947944,
          -3.692751671056703,
          1.3292946683749154
        ]
      ]
    }
  ]
}
