{
  "layers": [
    {
      "activation": 1,
      "biases": [
        1.6834937636102882,
        2.298773143554468,
        2.294167454375993
      ],
      "cols": 3,
      "rows": 4,
      "weights": [
        [
          -2.0310902127864603,
          0.35295872554092855,
          1.0119978482743464
        ],
        [
          -9.165357706210408,
          1.6491042504378215,
          1.6386618229433123
        ],
        [
          1.2776067553563393,
          1.5735079676654955,
          1.5959014935088038
        ],
        [
          3.6145069196780715,
          0.46722183545832136,
          1.0267281180251344
        ]
      ]
    },
    {
      "activation": 1,
      "biases": [
        -0.8685294181157296,
        -2.015875750884979,
        -2.0704387838277025,
        -1.7488778033131545,
        -2.3908030389732127,
        -1.7459477644332382,
        -1.9497143043854814,
        -2.05958184969067,
        -1.9183241167167455,
        -1.8995927539504216,
        -1.959326097501135,
        -2.0687806861330307,
        -2.13219907079213,
        -1.8810603253186284,
        -2.189404420734013,
        -0.8715702732349748,
        -2.0977895122871253,
        -1.820571096730296,
        -1.6377314006247177,
        4.936912985112761,
        -1.7431736176887926,
        -1.8366269978504337,
        -2.069009506503356,
        -1.9848150742035093,
        -1.9442238129708858,
        -2.1544399840064,
        -2.0517536501646694,
        -2.0170274005785545,
        -1.981430663367887,
        -1.9499522134487113,
        -1.9819173921811302,
        -2.0429873938906065,
        -2.0930787651092806,
        -2.011923033562602,
        -1.9751841148379607,
        -2.0914826494166334,
        -1.9776994964034909,
        -1.937973803145352,
        -2.0671683017827043,
        -1.9563659150282415,
        -1.8321364424271005,
        -2.030873591658623,
        -1.9656192463583717,
        -1.817772532511375,
        -1.916752775576788,
        1.876570354678092,
        -2.0955408322959777,
        1.7921634220867135,
        -2.052301981527689,
        1.8005024156118747,
        2.201319011464112,
        -1.8264051790224818,
        1.8965229541288464,
        -1.9119299308248967,
        1.3559645540355922
      ],
      "cols": 55,
      "rows": 3,
      "weights": [
        [
          -0.015678956511387166,
          -0.8644024209327675,
          -1.2392847961981777,
          1.2976357958106342,
          17.476725768247373,
          -1.1371511723156675,
          -1.0583174794817234,
          -1.2340959311841366,
          -1.0605003988098354,
          -0.873758052904539,
          -1.062983117953095,
          -1.0586665207974528,
          -1.1738457210754385,
          -1.1917783422648138,
          -1.1123720911828678,
          -0.016542292534311772,
          -0.9199384048592764,
          -0.9479619646416089,
          1.1017753664929868,
          1.77822893903493,
          -0.9951859500001949,
          -1.1424192559379531,
          -1.2040723647049936,
          -1.1030997080104292,
          -0.9778986348732681,
          -1.1989521942351393,
          -1.1399274525560776,
          -0.8345412105521318,
          -1.2724022473378211,
          -1.1303552137955846,
          -1.0416213640358871,
          -1.158847628672535,
          -0.9459983174279445,
          -0.9705708341806603,
          -1.2461583859034195,
          -0.9810440015021658,
          -1.169821367937486,
          -1.2112961958448354,
          -1.165043475499229,
          -1.0581018324792628,
          -1.1524035491781635,
          -0.8144498412952864,
          -1.0825163278691643,
          -0.8802477847830926,
          -0.8201866168482844,
          1.0847794698662896,
          -1.091552788845332,
          1.1115570501697674,
          -1.0230525074823096,
          0.967554289140041,
          0.9360794634226637,
          -1.076478618065459,
          0.7958266829221251,
          -1.0728273125553467,
          0.3669779454621924
        ],
        [
          -0.5941261791854411,
          -1.5318616740759088,
          -1.53623707392629,
          -1.0910871546635388,
          -2.9947925606638064,
          -1.4885666651209895,
          -1.6475839170770212,
          -1.571658209825217,
          -1.8507659253965465,
          -1.7202532727048478,
          -1.4172867635429942,
          -1.431490775610007,
          -1.4891067219993344,
          -1.8100061949140624,
          -1.6080694809375131,
          -0.8361157765537566,
          -1.5502810849595368,
          -1.7255121708671568,
          -1.3619031213633557,
          3.746711608099038,
          -1.540106220171966,
          -1.8822219256714579,
          -1.6254547600514282,
          -1.6191711357728145,
          -1.8837960451897022,
          -1.608741816015521,
          -1.6362860356641507,
          -1.618425381285948,
          -1.6228795603863273,
          -1.485681148280067,
          -1.59624847441134,
          -1.5206206366690944,
          -1.7101089313294713,
          -1.3666726754085454,
          -1.8108773140316092,
          -1.4800492575621393,
          -1.4727014501102382,
          -1.4344198214238826,
          -1.8179638743714182,
          -1.878312407794896,
          -1.6271521061540246,
          -1.4687115537033055,
          -1.6419075422190152,
          -1.7945730507850766,
          -1.900965562917773,
          1.68669270516159,
          -1.7015997243581125,
          1.7997018117040788,
          -1.4716244468012492,
          1.4712443277759684,
          1.5375954800058902,
          -1.750196822239403,
          1.7467387556373242,
          -1.5629063888860006,
          0.9357089305330273
        ],
        [
          -0.9899804383299872,
          -1.9209072418722277,
          -1.7923100942656263,
          -1.494764848502747,
          -2.85474186000273,
          -1.879525808269796,
          -1.8330669665061543,
          -1.7687410373885242,
          -1.661930447612105,
          -1.8485572938603128,
          -2.0519414392030733,
          -1.9281707140377782,
          -1.7871450400598206,
          -1.7178076252986023,
          -1.621122397595578,
          -0.6534529805015055,
          -1.8077918376169628,
          -1.907133084773487,
          -1.5382670650725017,
          3.662994163288118,
          -1.6999695703014335,
          -1.6987001977248404,
          -1.7102294426512568,
          -1.8180028465796743,
          -1.6186557349302333,
          -1.6415345079855157,
          -1.7271754960211394,
          -1.840385944760509,
          -1.790832981424051,
          -1.9814999841455492,
          -1.8547904166889333,
          -1.8481376956999398,
          -1.6479288663520517,
          -2.066876867974248,
          -1.6136541945877116,
          -1.8716075457098678,
          -1.959943621525448,
          -2.031602027863891,
          -1.5264808891213129,
          -1.596553373619718,
          -1.9557027829795093,
          -1.9802074788348993,
          -1.8183260832638295,
          -1.8556766693826792,
          -1.6636433596501694,
          1.8631195651616055,
          -1.6260800979676207,
          1.827810461568116,
          -1.9113103536842198,
          1.4262118441061,
          1.7066853887099174,
          -1.8518643371633339,
          1.8340641079277802,
          -1.9528186101225193,
          1.4861270498293673
        ]
      ]
    }
  ]
}
