{
  "layers": [
    {
      "activation": 1,
      "biases": [
        -3.0404254548034166,
        -8.500970526984833,
        -7.851428956133759
      ],
      "cols": 3,
      "rows": 2,
      "weights": [
        [
          -11.529923536776963,
          -0.26141538373678813,
          3.0695088493458758
        ],
        [
          31.21984688601201,
          11.264153681227018,
          -6.806721046981027
        ]
      ]
    },
    {
      "activation": 1,
      "biases": [
        4.137017386687765,
        1.3482088914121886,
        1.4221739023390767,
        -10.816732696600628,
        3.271894362321128,
        0.20706680949203718,
        6.455727515128553,
        1.4140258073542908,
        1.6388858578436014,
        1.5043184372732388
      ],
      "cols": 10,
      "rows": 3,
      "weights": [
        [
          -2.123919382410798,
          0.276529448446968,
          0.2334556762815361,
          11.56338652117009,
          -1.071976645033546,
          -8.484902459441095,
          -9.233164109315652,
          -0.635836528344514,
          -0.4758271891669383,
          0.8640964271606605
        ],
        [
          2.3116438452468007,
          -0.07732097252115104,
          -17.05428205445831,
          0.545539530961984,
          -4.583800129134522,
          -0.99096776167726,
          14.44711424407719,
          -2.8818902433455156,
          -0.06808720434275213,
          7.9345742843243805
        ],
        [
          -3.543380560857443,
          -0.8707764429608338,
          6.377662823957132,
          3.5753278864064413,
          -6.615861114019077,
          7.484994463902632,
          3.4977725103228274,
          0.9189891369374082,
          2.2546233232230635,
          2.6270099252242542
        ]
      ]
    }
  ]
}
