{
  "layers": [
    {
      "activation": 1,
      "biases": [
        -1.6332438217872605,
        -0.21129003811785368,
        13.862552210887339
      ],
      "cols": 3,
      "rows": 2,
      "weights": [
        [
          -1.2623669729375295,
          11.754656200378436,
          6.268356007443605
        ],
        [
          5.946153527370868,
          12.834870305659503,
          -49.17547645065016
        ]
      ]
    },
    {
      "activation": 1,
      "biases": [
        3.8659742719906744,
        0.6726794622253129,
        -1.4104650967501149,
        8.869036765856649,
        3.6952188547343248,
        3.4663465960860713,
        6.083325374793943,
        8.006024241165681,
        0.8709944187745964,
        34.23662608601888
      ],
      "cols": 10,
      "rows": 3,
      "weights": [
        [
          4.916692512667207,
          4.046700437354028,
          2.282911112715539,
          1.607400598027308,
          1.8983664795489554,
          4.173955041301756,
          -0.3033330117687557,
          -4.778637502106566,
          -1.2613278281293818,
          -50.61668467531679
        ],
        [
          -8.492094860853372,
          -3.73319340027183,
          0.08206610284904975,
          -9.459738532079935,
          -5.136293301926408,
          -6.949473992895988,
          -5.291440307379024,
          -3.4408646954445574,
          1.1902605613288064,
          15.180400389909018
        ],
        [
          4.492281266597119,
          2.8878615725281893,
          1.015403248002275,
          1.2082749942117328,
          0.9068634807585628,
          2.049067665774331,
          -0.6982878542846421,
          -3.819258154733381,
          -1.0520783457661167,
          -36.026043319617344
        ]
      ]
    }
  ]
}
