{
  "layers": [
    {
      "activation": 1,
      "biases": [
        -4.965146189778515,
        -5.158707283555286,
        -1.9007832758237135
      ],
      "cols": 3,
      "rows": 2,
      "weights": [
        [
          -1.9286506139981199,
          -5.902772253607391,
          9.726969648570854
        ],
        [
          15.277327203707587,
          16.4395823822976,
          -2.680476472649779
        ]
      ]
    },
    {
      "activation": 1,
      "biases": [
        -0.5434160282395518,
        -0.0520005714425784,
        1.0239672036782046,
        -11.976003798674949,
        -2.4036757672135214,
        -1.1796358463002563,
        -0.34220271437483285,
        -0.2744486895689768,
        0.05250674701705446,
        0.5143157521960441
      ],
      "cols": 10,
      "rows": 3,
      "weights": [
        [
          3.0205010454138397,
          -0.22978828704881343,
          -1.7537105832211868,
          8.208854769418197,
          12.30607758152759,
          -5.653810569090095,
          -2.184453829756701,
          -5.659821085339407,
          -3.7584216935813184,
          -3.5776048435619896
        ],
        [
          -0.24886115770319592,
          6.323670890030238,
          -1.6384312921603015,
          4.880297647818438,
          -7.259894860482967,
          -0.15760502144921945,
          8.143328857209205,
          5.752680131575722,
          7.95756380801641,
          8.39506969079985
        ],
        [
          -4.7665364518693245,
          0.7446233284481804,
          8.580687801249276,
          3.6139256374572044,
          -5.969692866905573,
          10.37224689404847,
          1.0595989953985416,
          2.6994430284710256,
          2.093302967049751,
          1.9935970541293417
        ]
      ]
    }
  ]
}
