{
  "layers": [
    {
      "activation": 1,
      "biases": [
        26.534802149379164,
        1.6455833303677816,
        -45.80556755990211
      ],
      "cols": 3,
      "rows": 4,
      "weights": [
        [
          3.949359583101572,
          -20.43832201423146,
          32.704235840872776
        ],
        [
          -30.627972906301814,
          15.084730869875653,
          17.76549711224324
        ],
        [
          9.448525790369949,
          2.4764296908634633,
          4.7629805080356
        ],
        [
          -3.271534937584531,
          1.0127184795162418,
          16.961997425997712
        ]
      ]
    },
    {
      "activation": 1,
      "biases": [
        -32.33305259591048,
        -3.8573052862309245,
        -8.142735976107842,
        0.9688943895680325,
        2.912389841483232,
        -3.1432470494586604,
        1.7611707925823956,
        -3.806563030133158,
        -4.73987458870336,
        -12.503391579639707,
        -3.8047464047072683,
        -3.6800569433350154,
        -3.796324540337282,
        -3.836366932238212,
        -0.2902644354040754,
        -7.882617209200458,
        -1.8908186560864935,
        -2.8739793065896813,
        -2.7360866740274807,
        8.009610308237454,
        -3.6276596036560558,
        -1.1979320369047142,
        -3.861433535361005,
        -3.624296087183609,
        -3.221779256851461,
        -3.78192747012631,
        -3.9667654654228177,
        -2.5902612944247974,
        -3.8948426583769007,
        -3.910408392526833,
        -6.571775203937007,
        -1.4487768871926772,
        -2.8439836705899557,
        -3.995385830323044,
        5.330314492536653,
        -3.7167552780813278,
        -24.69047923814208,
        -3.3626189442525005,
        -3.8995667164512393,
        -2.3748342594680585,
        -3.6182694987838198,
        -8.61818321157492,
        -3.8589710632927017,
        -3.8406652603633797,
        -3.827069051853794,
        7.681025398621768,
        -8.35734657573119,
        14.402797321601648,
        -7.785290359467418,
        58.53227205646635,
        3.0458168862694315,
        -7.805034664517785,
        21.051084567467065,
        -7.7815872888271596,
        1.1898685640385656
      ],
      "cols": 55,
      "rows": 3,
      "weights": [
        [
          16.860302545124632,
          -2.6113425226354523,
          2.3821386557430615,
          -4.082710876615996,
          12.290942492186577,
          -1.5408503177870287,
          -2.802538803630507,
          -2.759270104378133,
          -2.7697686829866806,
          10.441149255125858,
          -2.621554535107634,
          -2.5768184078956105,
          -2.749696575956691,
          -2.714078706500189,
          -2.0094859869909363,
          -23.66955278697226,
          -1.5660368655242267,
          0.7213380962071045,
          -4.036895642476471,
          5.191300141741001,
          -2.4230632256910605,
          1.1226358260993579,
          -2.688663428143384,
          -2.4256633941546974,
          -2.3448292167721463,
          -2.6918831234706104,
          -2.6202636206244065,
          -1.1309920212420952,
          -2.721188520203458,
          -2.6548016441023528,
          -6.409967886633219,
          -1.8035856160806516,
          2.443962979065011,
          -2.5295081883495727,
          1.1596473045325295,
          -2.6971237799544823,
          20.61629506164012,
          -2.014205461210873,
          -2.589217665225049,
          -1.3374367046844988,
          -2.5619959809158748,
          4.79398536425388,
          -2.613443020599095,
          -2.719176921660021,
          -2.660248984622316,
          4.597346134502862,
          -4.937858446013387,
          -23.203857052565844,
          -5.142277057335213,
          -17.4277824598781,
          10.51682356227764,
          -5.144598051637818,
          -21.883505714006144,
          -5.040994449232539,
          -0.15630145366115775
        ],
        [
          -7.347809979207072,
          -2.714694750702824,
          3.60423558776595,
          -1.648590466596838,
          -4.077388227344833,
          -2.8187035894198935,
          -5.796302326724831,
          -2.8077660866855276,
          -2.887028965307076,
          0.4346135344642743,
          -2.789491746790775,
          -2.9013854454190042,
          -2.8280937426391373,
          -2.793341001735566,
          -4.654629006159878,
          4.853220489501099,
          -3.9161402987237057,
          -12.302779362711853,
          1.5889240452278839,
          4.914613003067898,
          -2.3302837106634318,
          -22.635430544385702,
          -2.7638887078508,
          -2.813777336771062,
          -2.5685845005242625,
          -2.7980236428951124,
          -2.6669442738199516,
          -3.6868472898579743,
          -2.6960271205634943,
          -2.715286722949427,
          -2.3826871784823065,
          -4.442897592211989,
          -21.617730599358325,
          -2.6413683986593517,
          -25.628367857464664,
          -2.8453700701477542,
          -7.462413967728264,
          -3.0404023585822193,
          -2.7525234544764086,
          -3.8426090099480605,
          -2.917674995999279,
          -0.2229813216696573,
          -2.7434364815577523,
          -2.770247924350846,
          -2.7296398368311054,
          6.282920240067668,
          -6.424497757622367,
          35.17430627326106,
          -5.452508397591929,
          -56.5674919497851,
          -2.098315427549259,
          -5.292995986209583,
          -20.441435426615783,
          -5.1252019421927715,
          -16.09584964889938
        ],
        [
          37.86017954164759,
          -1.3127802753683149,
          0.418386189980027,
          -9.1313710960917,
          14.585958898303668,
          -0.513100704505426,
          2.4368211882399318,
          -0.8727348013389564,
          -1.0469029681426807,
          1.0346042657880403,
          -1.0555977714890075,
          -1.0098577663455575,
          -1.1165102212695428,
          -1.0378065492738737,
          2.3979891631167685,
          10.008276775467417,
          1.2088038997106643,
          6.383759923126023,
          -2.992870900684788,
          1.9662402457202672,
          -1.0831957296506751,
          13.626889141056903,
          -1.03080262396304,
          -0.9398008943687359,
          3.227650806996381,
          -1.1212232665625772,
          -1.24797101545213,
          0.16069044299544244,
          -1.3300446922111737,
          -1.0294182226657256,
          -2.113881601651936,
          2.3410296961307857,
          21.42107545008564,
          -1.310869092121654,
          56.776141328002346,
          -0.8637615854454009,
          19.74898662466037,
          -0.9357054834632623,
          -1.3889465918148391,
          0.0859846304529403,
          -0.9169298748350962,
          3.1354957930874345,
          -0.966369582206017,
          -1.3289646949888676,
          -0.7626093182509591,
          1.9146747885050728,
          -1.89392301063191,
          -24.238417671489074,
          -2.1400114353500523,
          -8.941678864361835,
          9.984961380990997,
          -3.076641852294484,
          35.55457010365162,
          -1.965638127635528,
          11.877042020639118
        ]
      ]
    }
  ]
}
