{
  "layers": [
    {
      "activation": 1,
      "biases": [
        -4.128956360612993,
        -9.521524052317355,
        4.978949695975141
      ],
      "cols": 3,
      "rows": 4,
      "weights": [
        [
          11.886790064869928,
          3.056505578139397,
          1.2141488232298814
        ],
        [
          5.325819281038624,
          2.445939577824252,
          -0.30931748685998184
        ],
        [
          1.535716286056991,
          4.0631949926454,
          1.7756826564421624
        ],
        [
          0.6112370108740314,
          17.483786742721247,
          0.6680593536182485
        ]
      ]
    },
    {
      "activation": 1,
      "biases": [
        -1.3327435234480633,
        -2.728515275465682,
        -2.619167549915982,
        -1.983450310063592,
        -3.085099620659388,
        -2.4192496261478014,
        -2.7253772096234044,
        -2.6847129443867277,
        -2.7200575140897905,
        -2.6656904609421357,
        -2.797224691970527,
        -2.5369277139301465,
        -2.783092989727158,
        -2.6217807062378857,
        -2.7819622480861437,
        -1.1352337796147818,
        -2.6963105318229315,
        -2.1907987762543786,
        -2.22068050804091,
        -2.4411062053974018,
        -2.7962014112110496,
        -2.701701988463477,
        -2.6666759916664757,
        -2.5094706292221765,
        -2.6260983251736882,
        -2.61881407401872,
        -2.46286744000046,
        -2.457575190564616,
        -2.580946031023208,
        -2.8383153626029887,
        -2.559219448577449,
        -2.765007995885991,
        -2.6903828517568336,
        -2.6359414875613543,
        -2.8615417183771368,
        -2.825628061987652,
        -2.7019910148356785,
        -2.6887308218021335,
        -2.753787071987419,
        -2.741711259881865,
        -2.7912907478888194,
        -2.7178023474214354,
        -2.7793275544697553,
        -2.7518616666462963,
        -2.5316155741252,
        2.7036846011390705,
        -5.3567373600876875,
        2.780275569826905,
        -5.337931620541026,
        2.6603897795765334,
        2.558078326079561,
        -5.511114519573017,
        2.7000726491649947,
        -5.568730946342182,
        2.6980705855607803
      ],
      "cols": 55,
      "rows": 3,
      "weights": [
        [
          -0.43232442382744374,
          -1.2423315674787534,
          -1.2904596337834149,
          0.9645397763739468,
          4.213183792364711,
          -1.1079144484771704,
          -1.1921526592175204,
          -1.1252814084877323,
          -1.419609096510826,
          -1.3019976245060274,
          -1.2340310585979417,
          -1.1798241336106268,
          -1.1807080032325898,
          -1.035695739948572,
          -1.3845834819347465,
          -0.5440014376021848,
          -1.2359833906717403,
          2.5801644667841814,
          1.0172498197775541,
          13.542392386518205,
          -1.1086813137511768,
          -1.0810530778189555,
          -1.3737333435751908,
          -1.4235191222277999,
          -1.1019551138203598,
          -1.336456648091505,
          -1.3071621294093465,
          -1.2810329423723612,
          -1.248612185670192,
          -1.3210567507448718,
          -1.3322908804908027,
          -1.1415494325822548,
          -1.4888765036734228,
          -1.2530524854297105,
          -1.2096381163832843,
          -1.1375429623889797,
          -1.4353029695669566,
          -1.2401401718675693,
          -1.4502312215728885,
          -1.0633017663863804,
          -1.498620860377948,
          -1.4888809817236248,
          -1.343042853084161,
          -1.4090742914277226,
          -1.4413636867957462,
          -13.691827518578597,
          -1.7511325157288837,
          -3.875107213560059,
          -2.0797354931111496,
          -13.977910653938197,
          1.1221057598568207,
          -2.3203577865315888,
          1.0088260437100205,
          -2.286261921102109,
          1.0707962870867578
        ],
        [
          -0.0773889167982106,
          -1.5756335547537366,
          -1.3848221001307475,
          0.08040389030908349,
          15.538159481431848,
          -1.2959591661532883,
          -1.5527255276851473,
          -1.6228078750793402,
          -1.3635887431013058,
          -1.2131327485100147,
          -1.769328958808148,
          -1.4197758694412703,
          -1.7376214192074255,
          -1.5977461245124456,
          -1.4707987919351482,
          0.008634834855885258,
          -1.2352697117579343,
          0.017073089475324477,
          0.3434550608220486,
          13.321194596797087,
          -1.4248277495230408,
          -1.646353669819534,
          -1.2089621334667016,
          -1.1805000235792258,
          -1.315377912845438,
          -1.5212173496437413,
          -1.586060174618426,
          -1.543373769012747,
          -1.4306840497535986,
          -1.4049683297441846,
          -1.2493209155479412,
          -1.3532361885476998,
          -1.3640947951822429,
          -1.6325078120572496,
          -1.3835994547581665,
          -1.4722039028464675,
          -1.3896491711202954,
          -1.6451691904247268,
          -1.6479062357533725,
          -1.5896001010243483,
          -1.385051798260132,
          -1.3358475910213277,
          -1.764392589146924,
          -1.4330379976223142,
          -1.196017334881609,
          0.2932681053683315,
          -3.0428517010914398,
          0.0095607465930331,
          -2.5498848833240277,
          0.3442427641153473,
          1.3966245621275524,
          -2.875288168409391,
          1.48021451634441,
          -3.056832914597766,
          1.4712657016431958
        ],
        [
          -0.8789369069126958,
          -2.274756948169507,
          -2.3985451981181143,
          -1.9977458046776146,
          -2.591076976015231,
          -2.398399272329327,
          -2.288206731045681,
          -2.333551555085168,
          -2.2821427615463366,
          -2.3730951498734303,
          -2.1893641484367317,
          -2.494492947824944,
          -2.214682477855557,
          -2.4163567397129047,
          -2.211936490837202,
          -0.9147840547022927,
          -2.349386611499954,
          -2.1196303066516555,
          -2.081703926423253,
          -3.0355476119959492,
          -2.19947773620842,
          -2.3223506531347233,
          -2.362548766275482,
          -2.5183183624211822,
          -2.4321010962774787,
          -2.376996056056976,
          -2.531308935599384,
          -2.5446649629803586,
          -2.4378204550507285,
          -2.171350496162313,
          -2.4705521799629224,
          -2.280089732367607,
          -2.3035878756613393,
          -2.3606944197763977,
          -2.1675141548900356,
          -2.205464062188909,
          -2.2952212753906522,
          -2.3083892887582236,
          -2.214565101986389,
          -2.2911144532547048,
          -2.1984824258748277,
          -2.2794953554171813,
          -2.1922467745222134,
          -2.2432906394233507,
          -2.491476241643719,
          2.1960987670265437,
          -4.631878808743867,
          2.0518742495251177,
          -4.692810853748685,
          2.1595185954997103,
          2.4862114257820025,
          -4.577994346488774,
          2.165720432286238,
          -4.506064403509193,
          2.15861869005147
        ]
      ]
    }
  ]
}
