{
  "layers": [
    {
      "activation": 1,
      "biases": [
        -21.238402204364604,
        -1.957050529977395,
        3.9511106513311653
      ],
      "cols": 3,
      "rows": 4,
      "weights": [
        [
          8.302883710643599,
          7.982504266252281,
          7.34347837970688
        ],
        [
          20.541008709300208,
          -3.0499895976355114,
          -4.773461458566733
        ],
        [
          0.37026294517766156,
          -0.4142357871766417,
          -3.3096491904336736
        ],
        [
          7.52594492092418,
          1.56424108612252,
          10.44411389946433
        ]
      ]
    },
    {
      "activation": 1,
      "biases": [
        -1.9922905255307568,
        -4.771017313411851,
        -3.3987566103826805,
        -3.208848095902112,
        -5.288358413787891,
        -3.456270553917171,
        -3.837594675658855,
        -3.848798175023612,
        -3.877906370969388,
        -3.923757532758669,
        -3.742955064880413,
        -3.795949418382019,
        -3.866908822489115,
        -3.778238383067845,
        -3.874565509745367,
        -4.371025245521928,
        -3.853361743657647,
        -9.08554721662684,
        -2.1587025982456267,
        6.755160904513924,
        -3.7354790811544456,
        -3.8201792799165255,
        -3.901640897562167,
        -3.801587145172073,
        -3.9220556522183188,
        -3.820124138959397,
        -3.9470770509278124,
        -3.9518983682834055,
        -3.7750967205504686,
        -3.8729339741563407,
        -3.8498344207209745,
        -3.834852343403527,
        -3.943759539001827,
        -3.8104021054496053,
        -3.8601506381146202,
        -3.8955245243560483,
        -3.797899329293618,
        -3.8516720907807365,
        -3.8030539547649247,
        -3.8297949545422907,
        -3.8687113772716417,
        -3.822280307952327,
        -3.80041566661885,
        -3.847545885527211,
        -3.785937868013134,
        7.898358167361495,
        -7.430762871958557,
        5.03610678090419,
        -7.82973870298809,
        3.578635399606102,
        5.030106333925983,
        -7.76963630703388,
        4.8125949940583075,
        -7.77016765182926,
        3.5255603701193863
      ],
      "cols": 55,
      "rows": 3,
      "weights": [
        [
          1.9989735563361426,
          1.58349032284677,
          2.3434684883927295,
          1.2274354595323989,
          -11.886145881272263,
          -0.8160512525467285,
          -1.6468018930116954,
          -1.7226965472682938,
          -1.660456542849682,
          -1.4908101872340729,
          -1.6872672041641485,
          -1.7029054954532599,
          -1.589850368134931,
          -1.585510108259726,
          -1.6693240855134155,
          -9.801702200621628,
          -1.4348919129039734,
          -30.85651044880956,
          0.35226487053019007,
          -32.16227352024983,
          -1.214799404821179,
          -1.5542100465456843,
          -1.53084753211688,
          -1.5416678422879362,
          -1.52687633014694,
          -1.6254501724812755,
          -1.4225198394099698,
          -1.44665654990888,
          -1.6505426337311266,
          -1.5285601725209497,
          -1.4429198498438294,
          -1.4206489641671796,
          -1.4733254150879682,
          -1.7235512297708162,
          -1.6470093980600438,
          -1.4958755593510973,
          -1.700434380057406,
          -1.387385321306343,
          -1.5788989458829543,
          -1.527084861857374,
          -1.4307415444661555,
          -1.5808078215875643,
          -1.545128559959576,
          -1.5655160568459678,
          -1.5545944245720669,
          -16.775148931306017,
          -2.6451876725748,
          -11.059311708265254,
          -2.877505592514213,
          1.1642126238577466,
          2.5980255610562444,
          -2.975172444299533,
          2.121071643259877,
          -2.9547521176379044,
          0.055505498570254296
        ],
        [
          0.8121881677029972,
          0.3250119198347405,
          -0.07760212481928977,
          0.38106390668102613,
          5.908488998105758,
          -0.3670671605554389,
          -1.6261798560405305,
          -1.8094556508117274,
          -1.583563834547383,
          -1.5338705194259457,
          -1.5486916160726694,
          -1.5169922706227423,
          -1.908924885510784,
          -1.7580785561886028,
          -1.6884633960483781,
          23.532301761361992,
          -1.6821191348366948,
          47.76116975116945,
          0.5457560765952508,
          16.95791663175287,
          -1.3466897122820622,
          -1.6692550800996526,
          -1.6333520166746573,
          -1.7796261321546207,
          -1.5617570756377164,
          -1.801353375427946,
          -1.890235974974736,
          -1.6217709922689691,
          -1.7506852841118143,
          -1.66999003563102,
          -1.3818747582253261,
          -1.5248681300702838,
          -1.5376709567620188,
          -1.5176657756561989,
          -1.7525462151513873,
          -1.6867459937941784,
          -1.5955103509520425,
          -1.7501303166251085,
          -1.8101189515757414,
          -1.504890346043401,
          -1.563776616111817,
          -1.5505193257556646,
          -1.6979867263217607,
          -1.5710821008846063,
          -1.5775199069485955,
          0.07058603515581198,
          -3.279214945753274,
          0.0047201848526780155,
          -3.022523822361947,
          -2.8581573192337615,
          2.7479153335224784,
          -3.347004803009184,
          2.6369545296210055,
          -3.291545474810452,
          -0.09683791578847416
        ],
        [
          -1.259551266695527,
          -0.7237748894304926,
          -1.2177582254934054,
          -1.278200548758703,
          16.14009970643161,
          -1.9697557851288214,
          -2.786839948882939,
          -2.6692746960145604,
          -2.6794033738705885,
          -2.6961588991799785,
          -3.039123624107445,
          -2.876716047394276,
          -2.7038262885743034,
          -2.9968282036818588,
          -2.66204754089776,
          -10.435460421378567,
          -2.622197121842559,
          -6.448956676301319,
          -1.9386731172304228,
          -11.507280269468636,
          -2.2984796393389533,
          -2.911844033345502,
          -2.704683289444405,
          -2.965558343603593,
          -2.666885703186418,
          -2.8229982811018544,
          -2.6280101536396474,
          -2.640338653820468,
          -2.941581540557311,
          -2.779838656936505,
          -2.987209382209766,
          -3.0377557355644105,
          -2.6562337187330067,
          -2.8217557047137807,
          -2.703662165190742,
          -2.741810297462664,
          -2.8586860516902153,
          -2.985025307232267,
          -2.9166608578002475,
          -2.938366109258857,
          -2.907589234834614,
          -2.900611037706773,
          -2.978735493601283,
          -2.8372206112192013,
          -3.035513447308487,
          8.21118276531654,
          -5.572963435054468,
          5.344718993577374,
          -5.596101603567866,
          1.8449064879605712,
          4.324296199314486,
          -5.718661528898782,
          4.11005301999369,
          -5.656133807022445,
          0.3877054958991486
        ]
      ]
    }
  ]
}
